{"layers":[4,8,12,4,1],"loss":1.0,"weights":[{"rows":8,"columns":4,"data":[-75.06915,-70.13319,-40.83615,-52.099422,-0.12741786,-1.1034635,-1.2617145,552.4582,-377.6676,-202.8587,-45.496407,-7.274059,-25.209475,-41.4495,-15.37963,-528.7451,189.14053,258.09772,122.193375,-216.6506,0.69919026,7.265309,2.7319503,1.8481386,-542.4623,-1308.533,-576.25684,142.88904,77.76846,54.202133,37.31406,-47.210495]},{"rows":12,"columns":8,"data":[-8.706267,-2.7131052,-5.3354864,-3.899483,12.284297,-0.14859173,10.091082,0.209315,0.97666854,-2.9325356,0.9954131,-0.17420265,-4.332285,-0.74372065,7.644811,0.28349388,-10.348972,-2.7463527,-6.3086777,-3.1654425,13.894129,-0.20351139,10.864478,0.40320665,11.65231,2.670668,8.318265,4.6138597,-16.022608,0.4982647,-10.845199,0.53232133,12.166995,-0.9051061,14.12033,1.6222502,-13.122992,-0.35583666,10.420859,2.1042593,-15.290304,-8.512448,-13.19726,-3.6213286,26.684978,-0.5258119,-32.250477,4.76815,13.703912,-2.3462932,16.272236,2.8887832,-14.9982395,0.3848818,10.957055,1.9970481,-4.199866,1.6648381,-12.592562,-0.62815446,3.4312515,0.55227476,3.549504,0.71992874,-12.874354,1.4382157,-11.715332,-2.477497,11.999161,-0.051129658,3.543659,0.7079132,15.323518,-1.8996629,23.295671,8.282451,-22.022343,0.4145811,-2.8098106,0.678869,12.115851,-1.844548,14.186962,4.197825,-14.174967,0.17703035,-3.4575014,2.103201,-0.68609667,-8.629727,20.652044,6.9750047,-4.454551,-0.45924187,-3.0482645,-8.575915]},{"rows":4,"columns":12,"data":[-0.591653,0.5198365,1.002613,-0.40119258,2.2747507,-2.714044,5.857218,-2.7804923,-1.1135565,2.510688,1.9999993,8.610076,1.6652797,0.29076788,2.4414504,-4.1797943,-0.85879457,3.6842766,-1.8449304,3.1249664,3.2915926,-7.5740275,-2.7644887,-6.436394,1.3592931,0.9241173,2.8121388,-3.004722,0.96546453,1.0202506,-0.4132165,0.8179856,0.4610259,-1.309996,-1.0812416,-1.2540851,0.9256595,-0.082713865,-0.45459124,-1.3476899,5.4066424,-3.2668564,1.9023181,-0.8185146,-1.2869573,1.3516183,0.4290875,6.6540995]},{"rows":1,"columns":4,"data":[-3.6879878,3.5360017,0.6330591,-2.67398]}],"biases":[{"rows":8,"columns":1,"data":[58.05921,-7.9262547,136.79294,25.124645,31.02818,0.31246468,-409.88483,-41.842278]},{"rows":12,"columns":1,"data":[-1.1111108,0.6237402,-1.45234,1.3254346,-3.9086015,-1.1043257,-3.5076778,2.0481353,2.3334773,-3.3217602,-2.2512343,2.4083478]},{"rows":4,"columns":1,"data":[-0.8938791,-0.27458808,-1.437424,-1.6447399]},{"rows":1,"columns":1,"data":[0.8105789]}],"data":[{"rows":4,"columns":1,"data":[0.05263,0.194,0.6135,0.92751]},{"rows":8,"columns":1,"data":[5.2885675e-15,1.0,1.0,0.0,6.786923e-16,0.994228,0.0,1.2512539e-21]},{"rows":12,"columns":1,"data":[0.000090738715,0.113768615,0.000022326656,0.99999726,0.99987066,7.327422e-11,0.9999796,0.00024099354,0.0003372082,1.0,0.9999652,0.99999917]},{"rows":4,"columns":1,"data":[1.0,4.1821643e-11,0.00059306354,0.999997]},{"rows":1,"columns":1,"data":[0.0038685317]}],"learning_rate":0.01,"activation":"SIGMOID"}