{"layers":[4,8,12,4,1],"loss":1.0,"weights":[{"rows":8,"columns":4,"data":[60.720676,81.241165,44.104675,-113.47673,331.06613,175.96313,75.1544,109.33672,670.4882,382.75522,116.454666,-133.41473,-317.79776,-199.12483,-88.002426,-275.57755,1.2898033,5.4514513,3.9844255,13.101579,0.99506634,5.553057,3.9711757,13.035603,103.298454,179.69933,138.95421,-65.3539,-471.35605,-289.71323,-122.026276,-11.596473]},{"rows":12,"columns":8,"data":[1.5421754,-2.6208498,-11.336481,6.717085,3.102907,1.8024653,-1.7001522,5.1633844,2.544697,6.62909,9.714038,-14.472315,1.999908,0.47936606,2.7092483,-19.29319,-17.218872,-23.305279,-14.810939,17.195889,-0.06249999,0.97567487,-13.840704,32.169174,-11.609778,-15.928939,-4.4172926,11.558403,-3.2049541,-3.3711596,-5.926765,20.42632,-1.5210961,-12.210226,-2.8117821,16.704605,-2.660022,-2.8747637,-0.004574651,6.3245673,-13.206862,-6.412938,-11.611312,17.641684,-1.0851434,-0.93835485,-1.2004099,18.748718,0.18631189,-8.003176,-11.215876,16.453089,-0.5206991,-2.0930107,-1.4696505,18.11481,-11.427416,-12.344282,-14.386647,0.4316569,5.324674,6.055413,0.14473622,4.803853,1.6273603,34.257763,8.686849,-14.952008,23.436892,23.122747,6.017952,-99.98302,1.7702329,3.6078384,1.107807,0.2384732,3.6072824,0.50001955,0.32059383,0.9775384,4.133303,36.965286,32.299835,-12.007364,-15.212738,-16.000343,5.6767445,-10.285899,1.970118,9.626341,2.8760748,-11.566938,1.367648,2.6376283,-2.0267696,-6.1590414]},{"rows":4,"columns":12,"data":[0.12010171,6.089387,-4.738417,0.9957203,-1.7157371,-3.5738647,-2.307532,-4.0000253,1.1017773,0.12495196,1.9904705,6.2231026,2.2938097,-1.6058587,5.9895186,1.2693377,0.065742955,0.24999991,0.4481388,-0.11884196,-0.22100145,2.67756,-15.27107,1.9718745,0.47267187,-0.17087281,0.6111031,0.1368645,0.6444699,0.30291155,0.7800098,6.278313,-0.29284313,0.38511252,-5.939173,-0.14252645,-2.5799465,5.5254335,-7.029931,-8.112797,-6.0622916,-7.1179585,-5.1402564,-3.8591483,32.960995,-1.870413,2.3510113,0.064657524]},{"rows":1,"columns":4,"data":[1.8859388,-5.3413553,-0.95187795,2.362043]}],"biases":[{"rows":8,"columns":1,"data":[-61.773754,-146.18053,-139.2081,174.48103,6.101254,6.545201,-91.02591,215.53404]},{"rows":12,"columns":1,"data":[3.2551177,0.71844625,3.7169993,-1.6483843,-2.0958335,-1.1211432,1.3831135,6.659823,21.859453,4.0000277,-16.000345,2.3959296]},{"rows":4,"columns":1,"data":[0.04214991,0.050939877,-0.6864923,-2.4903657]},{"rows":1,"columns":1,"data":[1.2790824]}],"data":[{"rows":4,"columns":1,"data":[0.05263,0.194,0.6135,0.92751]},{"rows":8,"columns":1,"data":[0.0,1.0,2.5312426e-36,0.0,1.0,1.0,4.6431596e-12,1.0]},{"rows":12,"columns":1,"data":[0.99997747,0.00007740545,0.99999857,0.023477074,0.0000013488217,0.9998981,0.999861,0.99997246,0.9371005,0.9999969,1.2083162e-9,0.99994826]},{"rows":4,"columns":1,"data":[0.00086429704,0.99999845,0.99956053,0.66316295]},{"rows":1,"columns":1,"data":[0.030899052]}],"learning_rate":0.01,"activation":"SIGMOID"}